digraph Tree {
node [shape=box, style="filled, rounded", color="black", fontname=helvetica] ;
edge [fontname=helvetica] ;
0 [label=<X<SUB>1</SUB> &le; 2.5<br/>gini = 0.499<br/>samples = 23<br/>value = [12, 11]<br/>class = Delivery>, fillcolor="#fdf5ef"] ;
1 [label=<X<SUB>0</SUB> &le; 3.5<br/>gini = 0.355<br/>samples = 13<br/>value = [3, 10]<br/>class = Price>, fillcolor="#74baed"] ;
0 -> 1 [labeldistance=2.5, labelangle=45, headlabel="True"] ;
2 [label=<X<SUB>2</SUB> &le; 2.5<br/>gini = 0.278<br/>samples = 12<br/>value = [2, 10]<br/>class = Price>, fillcolor="#61b1ea"] ;
1 -> 2 ;
3 [label=<gini = 0.0<br/>samples = 4<br/>value = [0, 4]<br/>class = Price>, fillcolor="#399de5"] ;
2 -> 3 ;
4 [label=<X<SUB>6</SUB> &le; 2.5<br/>gini = 0.375<br/>samples = 8<br/>value = [2, 6]<br/>class = Price>, fillcolor="#7bbeee"] ;
2 -> 4 ;
5 [label=<gini = 0.0<br/>samples = 3<br/>value = [0, 3]<br/>class = Price>, fillcolor="#399de5"] ;
4 -> 5 ;
6 [label=<X<SUB>3</SUB> &le; 2.5<br/>gini = 0.48<br/>samples = 5<br/>value = [2, 3]<br/>class = Price>, fillcolor="#bddef6"] ;
4 -> 6 ;
7 [label=<gini = 0.0<br/>samples = 1<br/>value = [0, 1]<br/>class = Price>, fillcolor="#399de5"] ;
6 -> 7 ;
8 [label=<X<SUB>5</SUB> &le; 2.5<br/>gini = 0.5<br/>samples = 4<br/>value = [2, 2]<br/>class = Delivery>, fillcolor="#ffffff"] ;
6 -> 8 ;
9 [label=<X<SUB>6</SUB> &le; 3.5<br/>gini = 0.444<br/>samples = 3<br/>value = [1, 2]<br/>class = Price>, fillcolor="#9ccef2"] ;
8 -> 9 ;
10 [label=<gini = 0.0<br/>samples = 1<br/>value = [0, 1]<br/>class = Price>, fillcolor="#399de5"] ;
9 -> 10 ;
11 [label=<X<SUB>2</SUB> &le; 3.5<br/>gini = 0.5<br/>samples = 2<br/>value = [1, 1]<br/>class = Delivery>, fillcolor="#ffffff"] ;
9 -> 11 ;
12 [label=<gini = 0.0<br/>samples = 1<br/>value = [1, 0]<br/>class = Delivery>, fillcolor="#e58139"] ;
11 -> 12 ;
13 [label=<gini = 0.0<br/>samples = 1<br/>value = [0, 1]<br/>class = Price>, fillcolor="#399de5"] ;
11 -> 13 ;
14 [label=<gini = 0.0<br/>samples = 1<br/>value = [1, 0]<br/>class = Delivery>, fillcolor="#e58139"] ;
8 -> 14 ;
15 [label=<gini = 0.0<br/>samples = 1<br/>value = [1, 0]<br/>class = Delivery>, fillcolor="#e58139"] ;
1 -> 15 ;
16 [label=<X<SUB>5</SUB> &le; 1.5<br/>gini = 0.18<br/>samples = 10<br/>value = [9, 1]<br/>class = Delivery>, fillcolor="#e88f4f"] ;
0 -> 16 [labeldistance=2.5, labelangle=-45, headlabel="False"] ;
17 [label=<gini = 0.0<br/>samples = 1<br/>value = [0, 1]<br/>class = Price>, fillcolor="#399de5"] ;
16 -> 17 ;
18 [label=<gini = 0.0<br/>samples = 9<br/>value = [9, 0]<br/>class = Delivery>, fillcolor="#e58139"] ;
16 -> 18 ;
}